booster[0]:
0:[f682<0.115521595] yes=1,no=2,missing=1
	1:[f420<0.0804531425] yes=3,no=4,missing=3
		3:[f273<-0.431212425] yes=5,no=6,missing=5
			5:leaf=-0
			6:leaf=0.0666666701
		4:leaf=-0
	2:leaf=-0
booster[1]:
0:[f85<-1.13109136] yes=1,no=2,missing=1
	1:leaf=-0
	2:[f73<-1.79946828] yes=3,no=4,missing=3
		3:leaf=-0
		4:[f323<-0.0887331069] yes=5,no=6,missing=5
			5:leaf=-0
			6:leaf=0.0667383671
booster[2]:
0:[f485<0.118487597] yes=1,no=2,missing=1
	1:[f236<-0.365145296] yes=3,no=4,missing=3
		3:leaf=-0
		4:[f204<0.38398695] yes=7,no=8,missing=7
			7:leaf=0.061745476
			8:leaf=-0
	2:[f72<-1.07869196] yes=5,no=6,missing=5
		5:leaf=-0
		6:[f27<1.48559129] yes=9,no=10,missing=9
			9:leaf=-0.0156111559
			10:leaf=-0
booster[3]:
0:[f71<-0.490319282] yes=1,no=2,missing=1
	1:[f284<-0.304372013] yes=3,no=4,missing=3
		3:leaf=-0
		4:[f360<0.204814494] yes=7,no=8,missing=7
			7:leaf=-0.03567601
			8:leaf=-0
	2:[f144<0.342791021] yes=5,no=6,missing=5
		5:[f597<0.109770238] yes=9,no=10,missing=9
			9:leaf=0.0699885935
			10:leaf=-0
		6:leaf=-0
booster[4]:
0:[f460<-0.0532057509] yes=1,no=2,missing=1
	1:[f185<-0.47500205] yes=3,no=4,missing=3
		3:leaf=-0
		4:[f285<-0.310742974] yes=7,no=8,missing=7
			7:leaf=-0
			8:leaf=-0.0454261675
	2:[f461<0.196377158] yes=5,no=6,missing=5
		5:[f600<-0.449790806] yes=9,no=10,missing=9
			9:leaf=-0
			10:leaf=0.0573569238
		6:leaf=-0
booster[5]:
0:[f387<0.0564682111] yes=1,no=2,missing=1
	1:[f553<-0.562011361] yes=3,no=4,missing=3
		3:leaf=-0
		4:[f40<1.57556129] yes=7,no=8,missing=7
			7:leaf=-0.0423407368
			8:leaf=-0
	2:[f144<-0.639009416] yes=5,no=6,missing=5
		5:leaf=-0
		6:[f448<-0.183659911] yes=9,no=10,missing=9
			9:leaf=-0
			10:leaf=0.0654572546
booster[6]:
0:[f360<-0.129781216] yes=1,no=2,missing=1
	1:[f78<-0.937731385] yes=3,no=4,missing=3
		3:leaf=-0
		4:[f682<-0.0213906392] yes=7,no=8,missing=7
			7:leaf=-0
			8:leaf=-0.0327480212
	2:[f156<-0.0996294767] yes=5,no=6,missing=5
		5:leaf=-0
		6:[f634<-0.340407789] yes=9,no=10,missing=9
			9:leaf=-0
			10:leaf=0.0575202778
booster[7]:
0:[f456<-0.0255797468] yes=1,no=2,missing=1
	1:[f36<-2.43386555] yes=3,no=4,missing=3
		3:leaf=-0
		4:[f553<-0.934823096] yes=7,no=8,missing=7
			7:leaf=-0
			8:leaf=-0.0443067737
	2:[f113<-0.728155375] yes=5,no=6,missing=5
		5:leaf=-0
		6:[f421<0.266876459] yes=9,no=10,missing=9
			9:leaf=0.0475994498
			10:leaf=-0
booster[8]:
0:[f604<-0.0149396826] yes=1,no=2,missing=1
	1:[f173<-0.447830498] yes=3,no=4,missing=3
		3:leaf=-0
		4:[f595<-0.339744866] yes=7,no=8,missing=7
			7:leaf=-0
			8:leaf=-0.0352837518
	2:[f178<0.724416971] yes=5,no=6,missing=5
		5:[f60<1.63969326] yes=9,no=10,missing=9
			9:leaf=0.0513639264
			10:leaf=-0
		6:leaf=-0
booster[9]:
0:[f40<0.181753933] yes=1,no=2,missing=1
	1:[f323<0.0411890633] yes=3,no=4,missing=3
		3:[f457<0.162200689] yes=7,no=8,missing=7
			7:leaf=-0.0407958739
			8:leaf=-0
		4:leaf=-0
	2:[f154<-0.617457449] yes=5,no=6,missing=5
		5:leaf=-0
		6:[f552<1.41453397] yes=9,no=10,missing=9
			9:leaf=0.0592319071
			10:leaf=-0
booster[10]:
0:[f53<0.758784175] yes=1,no=2,missing=1
	1:[f682<0.116113648] yes=3,no=4,missing=3
		3:[f464<0.238607317] yes=7,no=8,missing=7
			7:leaf=0.0396543145
			8:leaf=-0
		4:leaf=-0
	2:[f52<-1.57127762] yes=5,no=6,missing=5
		5:leaf=-0
		6:[f408<-0.0241494589] yes=9,no=10,missing=9
			9:leaf=-0
			10:leaf=-0.0369818509
booster[11]:
0:[f603<0.27224952] yes=1,no=2,missing=1
	1:[f314<0.364558458] yes=3,no=4,missing=3
		3:[f247<0.294845968] yes=7,no=8,missing=7
			7:leaf=0.0395070538
			8:leaf=-0
		4:leaf=-0
	2:[f455<0.144111156] yes=5,no=6,missing=5
		5:leaf=-0.0252648871
		6:leaf=-0
booster[12]:
0:[f444<0.0490866788] yes=1,no=2,missing=1
	1:[f460<0.0147829857] yes=3,no=4,missing=3
		3:[f625<-0.292075157] yes=7,no=8,missing=7
			7:leaf=-0
			8:leaf=-0.0403122157
		4:leaf=-0
	2:[f544<-1.05592012] yes=5,no=6,missing=5
		5:leaf=-0
		6:[f374<-0.320127487] yes=9,no=10,missing=9
			9:leaf=-0
			10:leaf=0.0399266519
booster[13]:
0:[f300<-0.024032589] yes=1,no=2,missing=1
	1:[f17<3.17745829] yes=3,no=4,missing=3
		3:[f403<-0.2289671] yes=7,no=8,missing=7
			7:leaf=-0
			8:leaf=-0.0429021157
		4:leaf=-0
	2:[f560<-0.812459469] yes=5,no=6,missing=5
		5:leaf=-0
		6:[f135<-0.87026614] yes=9,no=10,missing=9
			9:leaf=-0
			10:leaf=0.0511943698
booster[14]:
0:[f69<-0.289307505] yes=1,no=2,missing=1
	1:[f418<0.224968374] yes=3,no=4,missing=3
		3:[f145<0.822557092] yes=7,no=8,missing=7
			7:leaf=-0.0421675816
			8:leaf=-0
		4:leaf=-0
	2:[f319<-0.270014346] yes=5,no=6,missing=5
		5:leaf=-0
		6:[f272<0.490860611] yes=9,no=10,missing=9
			9:leaf=0.0399228148
			10:leaf=-0
booster[15]:
0:[f440<0.134099364] yes=1,no=2,missing=1
	1:[f30<0.186024755] yes=3,no=4,missing=3
		3:leaf=-0
		4:[f532<0.88282007] yes=9,no=10,missing=9
			9:leaf=-0.0391808264
			10:leaf=-0
	2:[f505<4.6409502] yes=5,no=6,missing=5
		5:leaf=0.0389658436
		6:leaf=-0
booster[16]:
0:[f97<0.443562448] yes=1,no=2,missing=1
	1:[f692<-0.151470646] yes=3,no=4,missing=3
		3:leaf=-0
		4:[f261<-0.432975054] yes=7,no=8,missing=7
			7:leaf=-0
			8:leaf=0.0422700159
	2:[f285<0.411603749] yes=5,no=6,missing=5
		5:[f652<-0.157922849] yes=9,no=10,missing=9
			9:leaf=-0
			10:leaf=-0.0433164313
		6:leaf=-0
booster[17]:
0:[f480<-0.00508601964] yes=1,no=2,missing=1
	1:[f12<-4.09678268] yes=3,no=4,missing=3
		3:leaf=-0
		4:[f221<-0.551222324] yes=7,no=8,missing=7
			7:leaf=-0
			8:leaf=-0.0445357338
	2:[f105<0.501037717] yes=5,no=6,missing=5
		5:[f137<0.946538687] yes=9,no=10,missing=9
			9:leaf=0.0551145673
			10:leaf=-0
		6:leaf=-0
booster[18]:
0:[f667<0.11096891] yes=1,no=2,missing=1
	1:[f341<0.087689355] yes=3,no=4,missing=3
		3:[f270<-0.471409857] yes=7,no=8,missing=7
			7:leaf=-0
			8:leaf=-0.0386852585
		4:leaf=-0
	2:[f153<0.720009208] yes=5,no=6,missing=5
		5:[f377<0.143300712] yes=9,no=10,missing=9
			9:leaf=0.0323734172
			10:leaf=-0
		6:leaf=-0
booster[19]:
0:[f502<4.95360851] yes=1,no=2,missing=1
	1:[f286<-0.192744523] yes=3,no=4,missing=3
		3:leaf=-0
		4:[f294<0.575968981] yes=7,no=8,missing=7
			7:leaf=0.0508745387
			8:leaf=-0
	2:[f469<0.0705776364] yes=5,no=6,missing=5
		5:[f682<-0.138365895] yes=9,no=10,missing=9
			9:leaf=-0
			10:leaf=-0.0363034122
		6:leaf=-0
booster[20]:
0:[f85<-0.449577898] yes=1,no=2,missing=1
	1:[f141<0.543296814] yes=3,no=4,missing=3
		3:[f191<0.422893047] yes=7,no=8,missing=7
			7:leaf=-0.0324023031
			8:leaf=-0
		4:leaf=-0
	2:[f371<-0.306557119] yes=5,no=6,missing=5
		5:leaf=-0
		6:[f177<-0.468123913] yes=9,no=10,missing=9
			9:leaf=-0
			10:leaf=0.0517157391
booster[21]:
0:[f33<-1.2253952] yes=1,no=2,missing=1
	1:[f91<-0.903611302] yes=3,no=4,missing=3
		3:leaf=-0
		4:[f201<-0.373113066] yes=7,no=8,missing=7
			7:leaf=-0
			8:leaf=-0.0420923419
	2:[f300<-0.280826509] yes=5,no=6,missing=5
		5:leaf=-0
		6:[f536<-1.63734245] yes=9,no=10,missing=9
			9:leaf=-0
			10:leaf=0.0488980226
booster[22]:
0:[f455<0.148649961] yes=1,no=2,missing=1
	1:[f694<-0.0988904238] yes=3,no=4,missing=3
		3:leaf=-0
		4:[f132<-0.849868655] yes=7,no=8,missing=7
			7:leaf=-0
			8:leaf=-0.0368834734
	2:[f223<-0.335896373] yes=5,no=6,missing=5
		5:leaf=-0
		6:leaf=0.0142261451
booster[23]:
0:[f93<-0.267497063] yes=1,no=2,missing=1
	1:[f645<0.0970019773] yes=3,no=4,missing=3
		3:[f216<-0.290174425] yes=7,no=8,missing=7
			7:leaf=-0
			8:leaf=0.041100502
		4:leaf=-0
	2:[f277<-0.0735408962] yes=5,no=6,missing=5
		5:[f216<-0.36064443] yes=9,no=10,missing=9
			9:leaf=-0
			10:leaf=-0.0414706506
		6:leaf=-0
booster[24]:
0:[f217<-0.2039579] yes=1,no=2,missing=1
	1:[f665<0.0618091263] yes=3,no=4,missing=3
		3:[f607<0.219164968] yes=7,no=8,missing=7
			7:leaf=0.0184663739
			8:leaf=-0
		4:leaf=-0
	2:[f517<-1.67842698] yes=5,no=6,missing=5
		5:leaf=-0
		6:[f16<-5.13685131] yes=9,no=10,missing=9
			9:leaf=-0
			10:leaf=-0.0430131257
booster[25]:
0:[f464<0.135714933] yes=1,no=2,missing=1
	1:[f436<0.218804508] yes=3,no=4,missing=3
		3:[f362<-0.367592096] yes=7,no=8,missing=7
			7:leaf=-0
			8:leaf=0.0435895063
		4:leaf=-0
	2:[f319<0.0521610975] yes=5,no=6,missing=5
		5:leaf=-0.0227071922
		6:leaf=-0
booster[26]:
0:[f231<0.0158128925] yes=1,no=2,missing=1
	1:[f435<-0.0198650546] yes=3,no=4,missing=3
		3:leaf=-0
		4:[f154<0.553261697] yes=7,no=8,missing=7
			7:leaf=0.0253295489
			8:leaf=-0
	2:[f455<0.149828821] yes=5,no=6,missing=5
		5:[f383<-0.244304433] yes=9,no=10,missing=9
			9:leaf=-0
			10:leaf=-0.0472682752
		6:leaf=-0
booster[27]:
0:[f251<0.00484934682] yes=1,no=2,missing=1
	1:[f63<0.627214074] yes=3,no=4,missing=3
		3:[f108<-0.673641562] yes=7,no=8,missing=7
			7:leaf=-0
			8:leaf=0.0370096825
		4:leaf=-0
	2:[f203<-0.614998937] yes=5,no=6,missing=5
		5:leaf=-0
		6:[f122<0.800890565] yes=9,no=10,missing=9
			9:leaf=-0.0463155583
			10:leaf=-0
booster[28]:
0:[f43<0.211826593] yes=1,no=2,missing=1
	1:[f692<0.0296618547] yes=3,no=4,missing=3
		3:[f622<0.13564986] yes=7,no=8,missing=7
			7:leaf=-0.0372495726
			8:leaf=-0
		4:leaf=-0
	2:[f254<-0.532931685] yes=5,no=6,missing=5
		5:leaf=-0
		6:[f299<0.296713352] yes=9,no=10,missing=9
			9:leaf=0.0403282009
			10:leaf=-0
booster[29]:
0:[f446<-0.00987774692] yes=1,no=2,missing=1
	1:[f319<-0.184190825] yes=3,no=4,missing=3
		3:leaf=-0
		4:[f496<-0.095481649] yes=7,no=8,missing=7
			7:leaf=-0
			8:leaf=0.0598584488
	2:[f182<-0.297335386] yes=5,no=6,missing=5
		5:leaf=-0
		6:[f694<-0.149824768] yes=9,no=10,missing=9
			9:leaf=-0
			10:leaf=-0.0384514369
booster[30]:
0:[f343<0.337969244] yes=1,no=2,missing=1
	1:[f11<5.67776871] yes=3,no=4,missing=3
		3:[f334<0.352439702] yes=7,no=8,missing=7
			7:leaf=0.0356097743
			8:leaf=-0
		4:leaf=-0
	2:[f502<-4.65124893] yes=5,no=6,missing=5
		5:leaf=-0
		6:leaf=-0.0193365365
booster[31]:
0:[f229<-0.315106392] yes=1,no=2,missing=1
	1:[f664<-0.126357362] yes=3,no=4,missing=3
		3:leaf=-0
		4:[f170<-0.399694502] yes=7,no=8,missing=7
			7:leaf=-0
			8:leaf=0.0176444687
	2:[f408<-0.0589489937] yes=5,no=6,missing=5
		5:leaf=-0
		6:[f28<3.53475881] yes=9,no=10,missing=9
			9:leaf=-0.0379214697
			10:leaf=-0
booster[32]:
0:[f695<-0.0667285025] yes=1,no=2,missing=1
	1:[f310<-0.307959259] yes=3,no=4,missing=3
		3:leaf=-0
		4:[f660<-0.196570516] yes=7,no=8,missing=7
			7:leaf=-0
			8:leaf=-0.0465123057
	2:[f270<-0.101481974] yes=5,no=6,missing=5
		5:leaf=-0
		6:[f12<7.37944412] yes=9,no=10,missing=9
			9:leaf=0.0425072312
			10:leaf=-0
booster[33]:
0:[f327<-0.0156261306] yes=1,no=2,missing=1
	1:[f615<0.26681906] yes=3,no=4,missing=3
		3:[f686<-0.059955772] yes=7,no=8,missing=7
			7:leaf=-0
			8:leaf=0.0319842026
		4:leaf=-0
	2:[f459<-0.080121249] yes=5,no=6,missing=5
		5:leaf=-0
		6:[f385<0.209890425] yes=9,no=10,missing=9
			9:leaf=-0.0539365821
			10:leaf=-0
booster[34]:
0:[f537<0.983400822] yes=1,no=2,missing=1
	1:[f666<0.136304304] yes=3,no=4,missing=3
		3:[f185<-0.68578136] yes=7,no=8,missing=7
			7:leaf=-0
			8:leaf=0.0377474986
		4:leaf=-0
	2:[f695<0.110731244] yes=5,no=6,missing=5
		5:[f591<-0.308166802] yes=9,no=10,missing=9
			9:leaf=-0
			10:leaf=-0.0230817553
		6:leaf=-0
booster[35]:
0:[f517<-1.70022178] yes=1,no=2,missing=1
	1:[f627<-0.184565216] yes=3,no=4,missing=3
		3:leaf=-0
		4:[f658<0.104683653] yes=7,no=8,missing=7
			7:leaf=0.0156185878
			8:leaf=-0
	2:[f667<0.107793659] yes=5,no=6,missing=5
		5:[f30<-4.06751823] yes=9,no=10,missing=9
			9:leaf=-0
			10:leaf=-0.039762184
		6:leaf=-0
booster[36]:
0:[f30<0.0716756284] yes=1,no=2,missing=1
	1:[f137<0.495103657] yes=3,no=4,missing=3
		3:[f199<-0.422665] yes=7,no=8,missing=7
			7:leaf=-0
			8:leaf=0.0243329126
		4:leaf=-0
	2:[f422<-0.247019455] yes=5,no=6,missing=5
		5:leaf=-0
		6:[f387<0.314219564] yes=9,no=10,missing=9
			9:leaf=-0.052662041
			10:leaf=-0
booster[37]:
0:[f71<-0.971333563] yes=1,no=2,missing=1
	1:leaf=-0
	2:[f267<0.427068084] yes=5,no=6,missing=5
		5:[f678<-0.22630161] yes=9,no=10,missing=9
			9:leaf=-0
			10:leaf=0.0373719819
		6:leaf=-0
booster[38]:
0:[f77<0.773505807] yes=1,no=2,missing=1
	1:[f13<-1.6122992] yes=3,no=4,missing=3
		3:leaf=-0
		4:[f642<0.238660365] yes=7,no=8,missing=7
			7:leaf=-0.0389992893
			8:leaf=-0
	2:[f80<0.917700708] yes=5,no=6,missing=5
		5:leaf=0.0192449279
		6:leaf=-0
booster[39]:
0:[f446<-0.0651778728] yes=1,no=2,missing=1
	1:[f137<0.489415467] yes=3,no=4,missing=3
		3:[f654<-0.159207821] yes=7,no=8,missing=7
			7:leaf=-0
			8:leaf=0.0336523019
		4:leaf=-0
	2:[f69<0.581359148] yes=5,no=6,missing=5
		5:[f214<0.624244809] yes=9,no=10,missing=9
			9:leaf=-0.042068705
			10:leaf=-0
		6:leaf=-0
booster[40]:
0:[f216<0.0286134109] yes=1,no=2,missing=1
	1:[f289<0.0457144305] yes=3,no=4,missing=3
		3:leaf=-0
		4:[f513<3.17168713] yes=7,no=8,missing=7
			7:leaf=-0.0354239121
			8:leaf=-0
	2:[f576<-0.558876395] yes=5,no=6,missing=5
		5:leaf=-0
		6:[f348<0.275475889] yes=9,no=10,missing=9
			9:leaf=0.0278909206
			10:leaf=-0
booster[41]:
0:leaf=-0
booster[42]:
0:[f510<1.58146906] yes=1,no=2,missing=1
	1:[f467<0.00935117155] yes=3,no=4,missing=3
		3:[f487<0.133194536] yes=7,no=8,missing=7
			7:leaf=-0.0510817282
			8:leaf=-0
		4:leaf=-0
	2:[f448<-0.215313792] yes=5,no=6,missing=5
		5:leaf=-0
		6:[f339<0.352782011] yes=9,no=10,missing=9
			9:leaf=0.0352240056
			10:leaf=-0
booster[43]:
0:[f659<-0.0994845331] yes=1,no=2,missing=1
	1:[f536<1.1476171] yes=3,no=4,missing=3
		3:[f483<-0.204882786] yes=7,no=8,missing=7
			7:leaf=-0
			8:leaf=-0.0323244594
		4:leaf=-0
	2:[f555<-0.419821143] yes=5,no=6,missing=5
		5:leaf=-0
		6:[f127<-1.04322767] yes=9,no=10,missing=9
			9:leaf=-0
			10:leaf=0.0399883427
booster[44]:
0:[f473<-0.0906991959] yes=1,no=2,missing=1
	1:[f221<0.245797306] yes=3,no=4,missing=3
		3:[f259<-0.308368087] yes=7,no=8,missing=7
			7:leaf=-0
			8:leaf=0.0345458277
		4:leaf=-0
	2:[f446<-0.267610431] yes=5,no=6,missing=5
		5:leaf=-0
		6:[f672<-0.161854595] yes=9,no=10,missing=9
			9:leaf=-0
			10:leaf=-0.0336958244
booster[45]:
0:[f692<0.0469566733] yes=1,no=2,missing=1
	1:[f659<0.183227837] yes=3,no=4,missing=3
		3:[f603<-0.412273228] yes=7,no=8,missing=7
			7:leaf=-0
			8:leaf=-0.0382061265
		4:leaf=-0
	2:[f509<3.46267843] yes=5,no=6,missing=5
		5:[f337<0.262559623] yes=9,no=10,missing=9
			9:leaf=0.0261398498
			10:leaf=-0
		6:leaf=-0
booster[46]:
0:[f74<0.131091565] yes=1,no=2,missing=1
	1:[f244<0.241182327] yes=3,no=4,missing=3
		3:[f450<-0.204272568] yes=7,no=8,missing=7
			7:leaf=-0
			8:leaf=-0.0304986183
		4:leaf=-0
	2:[f177<0.504532695] yes=5,no=6,missing=5
		5:[f649<0.249572814] yes=9,no=10,missing=9
			9:leaf=0.0303271022
			10:leaf=-0
		6:leaf=-0
booster[47]:
0:[f12<3.10062885] yes=1,no=2,missing=1
	1:[f87<-0.957743645] yes=3,no=4,missing=3
		3:leaf=-0
		4:[f178<0.896578431] yes=7,no=8,missing=7
			7:leaf=0.0473504327
			8:leaf=-0
	2:[f143<-0.691187978] yes=5,no=6,missing=5
		5:leaf=-0
		6:[f473<-0.0961513668] yes=9,no=10,missing=9
			9:leaf=-0
			10:leaf=-0.0117494995
booster[48]:
0:[f220<-0.246392787] yes=1,no=2,missing=1
	1:[f455<0.139460385] yes=3,no=4,missing=3
		3:[f460<0.151223823] yes=7,no=8,missing=7
			7:leaf=-0.0157937109
			8:leaf=-0
		4:leaf=-0
	2:[f51<1.77027261] yes=5,no=6,missing=5
		5:[f231<0.63254714] yes=9,no=10,missing=9
			9:leaf=0.04280724
			10:leaf=-0
		6:leaf=-0
booster[49]:
0:[f300<-0.186550871] yes=1,no=2,missing=1
	1:[f382<0.30824405] yes=3,no=4,missing=3
		3:[f679<-0.149257362] yes=7,no=8,missing=7
			7:leaf=-0
			8:leaf=-0.0299307313
		4:leaf=-0
	2:[f539<-1.31026566] yes=5,no=6,missing=5
		5:leaf=-0
		6:[f564<0.490709245] yes=9,no=10,missing=9
			9:leaf=0.0318847299
			10:leaf=-0
booster[50]:
0:[f319<-0.245133281] yes=1,no=2,missing=1
	1:[f659<0.166800499] yes=3,no=4,missing=3
		3:leaf=-0.0110406689
		4:leaf=-0
	2:[f284<0.344042122] yes=5,no=6,missing=5
		5:[f184<-0.693110824] yes=7,no=8,missing=7
			7:leaf=-0
			8:leaf=0.0427464508
		6:leaf=-0
booster[51]:
0:[f90<0.00374549814] yes=1,no=2,missing=1
	1:[f267<-0.083372131] yes=3,no=4,missing=3
		3:leaf=-0
		4:[f415<0.211763203] yes=7,no=8,missing=7
			7:leaf=0.0253816135
			8:leaf=-0
	2:[f529<-1.5984478] yes=5,no=6,missing=5
		5:leaf=-0
		6:[f12<-5.73719978] yes=9,no=10,missing=9
			9:leaf=-0
			10:leaf=-0.0319179967
booster[52]:
0:[f315<0.155496836] yes=1,no=2,missing=1
	1:[f284<-0.28942886] yes=3,no=4,missing=3
		3:leaf=-0
		4:[f667<0.225986049] yes=7,no=8,missing=7
			7:leaf=-0.0397374742
			8:leaf=-0
	2:[f124<0.93118608] yes=5,no=6,missing=5
		5:[f319<-0.24538818] yes=9,no=10,missing=9
			9:leaf=-0
			10:leaf=0.0269877352
		6:leaf=-0
booster[53]:
0:[f33<0.037518587] yes=1,no=2,missing=1
	1:[f489<0.104984388] yes=3,no=4,missing=3
		3:[f51<-1.35462046] yes=7,no=8,missing=7
			7:leaf=-0
			8:leaf=-0.0341223963
		4:leaf=-0
	2:[f131<1.00518072] yes=5,no=6,missing=5
		5:[f236<-0.559682786] yes=9,no=10,missing=9
			9:leaf=-0
			10:leaf=0.0406159349
		6:leaf=-0
booster[54]:
0:leaf=-0
booster[55]:
0:[f431<-0.0502796471] yes=1,no=2,missing=1
	1:[f487<0.120165944] yes=3,no=4,missing=3
		3:[f208<0.415489614] yes=7,no=8,missing=7
			7:leaf=-0.0214821901
			8:leaf=-0
		4:leaf=-0
	2:[f287<0.371411413] yes=5,no=6,missing=5
		5:[f164<-0.690737724] yes=9,no=10,missing=9
			9:leaf=-0
			10:leaf=0.0322277844
		6:leaf=-0
booster[56]:
0:[f277<0.225901902] yes=1,no=2,missing=1
	1:[f598<0.254179239] yes=3,no=4,missing=3
		3:[f695<0.102179974] yes=7,no=8,missing=7
			7:leaf=-0.0358966179
			8:leaf=-0
		4:leaf=-0
	2:[f319<-0.19682917] yes=5,no=6,missing=5
		5:leaf=-0
		6:leaf=0.0196357463
booster[57]:
0:[f347<-0.012724245] yes=1,no=2,missing=1
	1:[f514<-2.98065662] yes=3,no=4,missing=3
		3:leaf=-0
		4:[f41<-2.1744566] yes=7,no=8,missing=7
			7:leaf=-0
			8:leaf=0.0296871942
	2:[f142<0.488459677] yes=5,no=6,missing=5
		5:[f219<0.428107202] yes=9,no=10,missing=9
			9:leaf=-0.0297607929
			10:leaf=-0
		6:leaf=-0
booster[58]:
0:[f284<-0.187768251] yes=1,no=2,missing=1
	1:[f183<0.496215671] yes=3,no=4,missing=3
		3:leaf=0.0348539203
		4:leaf=-0
	2:[f245<0.272164136] yes=5,no=6,missing=5
		5:[f446<-0.102642283] yes=7,no=8,missing=7
			7:leaf=-0
			8:leaf=-0.0325396173
		6:leaf=-0
booster[59]:
0:[f339<0.0461755879] yes=1,no=2,missing=1
	1:[f656<0.00246842951] yes=3,no=4,missing=3
		3:leaf=-0
		4:[f538<-1.26381743] yes=7,no=8,missing=7
			7:leaf=-0
			8:leaf=0.0345643163
	2:[f603<-0.421883345] yes=5,no=6,missing=5
		5:leaf=-0
		6:[f446<-0.256855428] yes=9,no=10,missing=9
			9:leaf=-0
			10:leaf=-0.0322467536
booster[60]:
0:[f52<-0.787470162] yes=1,no=2,missing=1
	1:leaf=-0
	2:[f409<0.109493248] yes=5,no=6,missing=5
		5:[f596<-0.276496172] yes=9,no=10,missing=9
			9:leaf=-0
			10:leaf=-0.0412501507
		6:leaf=-0
booster[61]:
0:[f300<-0.0191960614] yes=1,no=2,missing=1
	1:[f512<3.14327192] yes=3,no=4,missing=3
		3:[f628<0.207598686] yes=7,no=8,missing=7
			7:leaf=-0.0216199886
			8:leaf=-0
		4:leaf=-0
	2:[f423<-0.230477557] yes=5,no=6,missing=5
		5:leaf=-0
		6:[f240<0.446339607] yes=9,no=10,missing=9
			9:leaf=0.0361257307
			10:leaf=-0
booster[62]:
0:[f690<0.017171748] yes=1,no=2,missing=1
	1:[f250<0.287679195] yes=3,no=4,missing=3
		3:[f642<0.239420652] yes=7,no=8,missing=7
			7:leaf=-0.0363358036
			8:leaf=-0
		4:leaf=-0
	2:[f20<-2.41629958] yes=5,no=6,missing=5
		5:leaf=-0
		6:[f493<0.187214166] yes=9,no=10,missing=9
			9:leaf=0.0262241121
			10:leaf=-0
booster[63]:
0:[f473<-0.090448007] yes=1,no=2,missing=1
	1:[f221<0.294921756] yes=3,no=4,missing=3
		3:[f372<-0.150148749] yes=7,no=8,missing=7
			7:leaf=-0
			8:leaf=0.0242488496
		4:leaf=-0
	2:[f318<0.213148057] yes=5,no=6,missing=5
		5:[f643<-0.250752032] yes=9,no=10,missing=9
			9:leaf=-0
			10:leaf=-0.0385349095
		6:leaf=-0
booster[64]:
0:[f284<-0.193594992] yes=1,no=2,missing=1
	1:[f682<0.0848730803] yes=3,no=4,missing=3
		3:leaf=0.0123651465
		4:leaf=-0
	2:[f196<0.281251162] yes=5,no=6,missing=5
		5:[f308<-0.328384817] yes=7,no=8,missing=7
			7:leaf=-0
			8:leaf=-0.0387823693
		6:leaf=-0
booster[65]:
0:[f461<0.0989364088] yes=1,no=2,missing=1
	1:[f319<-0.313485086] yes=3,no=4,missing=3
		3:leaf=-0
		4:[f683<-0.182060838] yes=7,no=8,missing=7
			7:leaf=-0
			8:leaf=0.0271148812
	2:[f84<0.854565859] yes=5,no=6,missing=5
		5:leaf=-0.027630657
		6:leaf=-0
booster[66]:
0:[f553<-1.30683637] yes=1,no=2,missing=1
	1:leaf=-0
	2:[f12<-4.48831749] yes=3,no=4,missing=3
		3:leaf=-0
		4:[f567<-0.471693397] yes=5,no=6,missing=5
			5:leaf=-0
			6:leaf=-0.0339125805
booster[67]:
0:[f130<0.0134448688] yes=1,no=2,missing=1
	1:[f603<-0.258655876] yes=3,no=4,missing=3
		3:leaf=-0
		4:[f521<-2.38616419] yes=7,no=8,missing=7
			7:leaf=-0
			8:leaf=-0.0278147813
	2:[f559<-0.473685861] yes=5,no=6,missing=5
		5:leaf=-0
		6:[f124<-0.871191025] yes=9,no=10,missing=9
			9:leaf=-0
			10:leaf=0.0364381336
booster[68]:
0:[f93<-0.165970579] yes=1,no=2,missing=1
	1:[f183<0.208041966] yes=3,no=4,missing=3
		3:[f33<2.31949258] yes=7,no=8,missing=7
			7:leaf=0.0202185959
			8:leaf=-0
		4:leaf=-0
	2:[f548<1.0569067] yes=5,no=6,missing=5
		5:[f387<0.0734941587] yes=9,no=10,missing=9
			9:leaf=-0.040740665
			10:leaf=-0
		6:leaf=-0
booster[69]:
0:[f342<0.185933441] yes=1,no=2,missing=1
	1:[f184<-0.681159139] yes=3,no=4,missing=3
		3:leaf=-0
		4:[f137<1.05308962] yes=5,no=6,missing=5
			5:leaf=0.0359931923
			6:leaf=-0
	2:leaf=-0
booster[70]:
0:[f91<-0.254683912] yes=1,no=2,missing=1
	1:[f211<-0.493807077] yes=3,no=4,missing=3
		3:leaf=-0
		4:[f269<-0.47164169] yes=7,no=8,missing=7
			7:leaf=-0
			8:leaf=0.0197324809
	2:[f145<0.820307851] yes=5,no=6,missing=5
		5:[f529<-0.900498629] yes=9,no=10,missing=9
			9:leaf=-0
			10:leaf=-0.0320486389
		6:leaf=-0
booster[71]:
0:leaf=-0
booster[72]:
0:[f71<-0.852278113] yes=1,no=2,missing=1
	1:leaf=-0
	2:[f358<-0.300525904] yes=3,no=4,missing=3
		3:leaf=-0
		4:[f682<0.124555826] yes=5,no=6,missing=5
			5:leaf=0.0413133465
			6:leaf=-0
booster[73]:
0:[f69<-0.293467879] yes=1,no=2,missing=1
	1:[f265<0.266938239] yes=3,no=4,missing=3
		3:[f689<-0.122719258] yes=7,no=8,missing=7
			7:leaf=-0
			8:leaf=-0.0140335308
		4:leaf=-0
	2:[f220<-0.265487909] yes=5,no=6,missing=5
		5:leaf=-0
		6:[f369<-0.381747395] yes=9,no=10,missing=9
			9:leaf=-0
			10:leaf=0.0398888066
booster[74]:
0:[f159<0.19530651] yes=1,no=2,missing=1
	1:[f312<0.27278617] yes=3,no=4,missing=3
		3:[f513<5.10435581] yes=7,no=8,missing=7
			7:leaf=-0.0301886331
			8:leaf=-0
		4:leaf=-0
	2:[f618<0.314062357] yes=5,no=6,missing=5
		5:[f44<-1.47468626] yes=9,no=10,missing=9
			9:leaf=-0
			10:leaf=0.0242007859
		6:leaf=-0
booster[75]:
0:[f680<-0.202650666] yes=1,no=2,missing=1
	1:leaf=-0.000313869066
	2:[f178<0.809154034] yes=3,no=4,missing=3
		3:[f645<-0.317745745] yes=5,no=6,missing=5
			5:leaf=-0
			6:leaf=0.026456058
		4:leaf=-0
booster[76]:
0:leaf=-0
booster[77]:
0:[f682<0.0865353197] yes=1,no=2,missing=1
	1:[f448<-0.187394217] yes=3,no=4,missing=3
		3:leaf=-0
		4:[f207<0.472373456] yes=7,no=8,missing=7
			7:leaf=0.0334176794
			8:leaf=-0
	2:[f489<0.178361595] yes=5,no=6,missing=5
		5:[f554<-0.52196151] yes=9,no=10,missing=9
			9:leaf=-0
			10:leaf=-0.028533522
		6:leaf=-0
booster[78]:
0:[f166<0.40433085] yes=1,no=2,missing=1
	1:[f440<0.215932548] yes=3,no=4,missing=3
		3:[f277<0.416687727] yes=5,no=6,missing=5
			5:leaf=-0.0324033462
			6:leaf=-0
		4:leaf=-0
	2:leaf=-0
booster[79]:
0:leaf=-0
booster[80]:
0:[f88<0.199253261] yes=1,no=2,missing=1
	1:[f690<0.0550565496] yes=3,no=4,missing=3
		3:[f308<0.346086681] yes=7,no=8,missing=7
			7:leaf=-0.0259711444
			8:leaf=-0
		4:leaf=-0
	2:[f369<0.313563824] yes=5,no=6,missing=5
		5:[f199<-0.478219628] yes=9,no=10,missing=9
			9:leaf=-0
			10:leaf=0.0320527032
		6:leaf=-0
booster[81]:
0:[f519<-1.0240891] yes=1,no=2,missing=1
	1:[f567<0.5687567] yes=3,no=4,missing=3
		3:[f149<0.549168289] yes=7,no=8,missing=7
			7:leaf=0.0287321694
			8:leaf=-0
		4:leaf=-0
	2:[f667<0.125183702] yes=5,no=6,missing=5
		5:[f625<-0.316210985] yes=9,no=10,missing=9
			9:leaf=-0
			10:leaf=-0.0317271352
		6:leaf=-0
booster[82]:
0:[f245<0.221984103] yes=1,no=2,missing=1
	1:[f440<0.134099364] yes=3,no=4,missing=3
		3:[f437<0.260211766] yes=7,no=8,missing=7
			7:leaf=-0.0353409909
			8:leaf=-0
		4:leaf=-0
	2:[f423<0.1358812] yes=5,no=6,missing=5
		5:leaf=0.0173633844
		6:leaf=-0
booster[83]:
0:[f424<0.0917776376] yes=1,no=2,missing=1
	1:[f634<-0.223358855] yes=3,no=4,missing=3
		3:leaf=-0
		4:[f153<0.985165834] yes=7,no=8,missing=7
			7:leaf=0.0316243283
			8:leaf=-0
	2:[f615<-0.141323298] yes=5,no=6,missing=5
		5:leaf=-0
		6:[f444<0.172338516] yes=9,no=10,missing=9
			9:leaf=-0.0213041771
			10:leaf=-0
booster[84]:
0:[f690<0.00747001916] yes=1,no=2,missing=1
	1:[f454<-0.217195183] yes=3,no=4,missing=3
		3:leaf=-0
		4:[f455<0.24382405] yes=7,no=8,missing=7
			7:leaf=-0.0305260606
			8:leaf=-0
	2:[f231<0.145274207] yes=5,no=6,missing=5
		5:[f634<-0.249474704] yes=9,no=10,missing=9
			9:leaf=-0
			10:leaf=0.0234124158
		6:leaf=-0
booster[85]:
0:[f97<0.11275202] yes=1,no=2,missing=1
	1:[f699<0.161309645] yes=3,no=4,missing=3
		3:[f518<-3.7360189] yes=7,no=8,missing=7
			7:leaf=-0
			8:leaf=0.0347664915
		4:leaf=-0
	2:[f440<0.130034178] yes=5,no=6,missing=5
		5:[f560<0.75079757] yes=9,no=10,missing=9
			9:leaf=-0.0202028584
			10:leaf=-0
		6:leaf=-0
booster[86]:
0:[f424<-0.0889406651] yes=1,no=2,missing=1
	1:[f230<-0.450605273] yes=3,no=4,missing=3
		3:leaf=-0
		4:[f158<-0.546403527] yes=7,no=8,missing=7
			7:leaf=-0
			8:leaf=0.0133214435
	2:[f13<-3.67006779] yes=5,no=6,missing=5
		5:leaf=-0
		6:[f672<0.189332664] yes=9,no=10,missing=9
			9:leaf=-0.0278486554
			10:leaf=-0
booster[87]:
0:[f319<-0.0940147489] yes=1,no=2,missing=1
	1:[f283<-0.252345532] yes=3,no=4,missing=3
		3:leaf=-0
		4:[f598<0.280314296] yes=7,no=8,missing=7
			7:leaf=-0.0162551254
			8:leaf=-0
	2:[f58<1.37465668] yes=5,no=6,missing=5
		5:[f156<-0.407778233] yes=9,no=10,missing=9
			9:leaf=-0
			10:leaf=0.0329828002
		6:leaf=-0
booster[88]:
0:[f77<0.300148547] yes=1,no=2,missing=1
	1:[f620<0.178505659] yes=3,no=4,missing=3
		3:[f131<-0.795959115] yes=7,no=8,missing=7
			7:leaf=-0
			8:leaf=-0.0389326066
		4:leaf=-0
	2:[f241<0.350134492] yes=5,no=6,missing=5
		5:[f314<0.348423898] yes=9,no=10,missing=9
			9:leaf=0.0256066304
			10:leaf=-0
		6:leaf=-0
booster[89]:
0:[f435<-0.0201151464] yes=1,no=2,missing=1
	1:[f629<0.176104277] yes=3,no=4,missing=3
		3:[f298<0.446909249] yes=7,no=8,missing=7
			7:leaf=-0.0306798872
			8:leaf=-0
		4:leaf=-0
	2:[f670<-0.222578481] yes=5,no=6,missing=5
		5:leaf=-0
		6:[f648<-0.319240153] yes=9,no=10,missing=9
			9:leaf=-0
			10:leaf=0.0174664333
booster[90]:
0:leaf=-0
booster[91]:
0:[f423<-0.010556818] yes=1,no=2,missing=1
	1:[f298<-0.284324765] yes=3,no=4,missing=3
		3:leaf=-0
		4:[f428<0.190302968] yes=7,no=8,missing=7
			7:leaf=-0.0324128084
			8:leaf=-0
	2:[f386<-0.274276555] yes=5,no=6,missing=5
		5:leaf=-0
		6:[f173<0.693021357] yes=9,no=10,missing=9
			9:leaf=0.0234514456
			10:leaf=-0
booster[92]:
0:[f530<0.661760211] yes=1,no=2,missing=1
	1:[f76<0.585611641] yes=3,no=4,missing=3
		3:[f678<-0.195486382] yes=7,no=8,missing=7
			7:leaf=-0
			8:leaf=0.0257185586
		4:leaf=-0
	2:[f595<0.515720367] yes=5,no=6,missing=5
		5:[f49<-1.95993471] yes=9,no=10,missing=9
			9:leaf=-0
			10:leaf=-0.0319336429
		6:leaf=-0
booster[93]:
0:[f97<0.113037065] yes=1,no=2,missing=1
	1:[f114<-1.11203837] yes=3,no=4,missing=3
		3:leaf=-0
		4:[f632<-0.224845678] yes=7,no=8,missing=7
			7:leaf=-0
			8:leaf=0.026613621
	2:[f368<-0.201643899] yes=5,no=6,missing=5
		5:leaf=-0
		6:[f48<1.58209515] yes=9,no=10,missing=9
			9:leaf=-0.0105907777
			10:leaf=-0
booster[94]:
0:[f181<0.0796126574] yes=1,no=2,missing=1
	1:[f609<-0.0837014169] yes=3,no=4,missing=3
		3:leaf=-0
		4:[f253<0.480701745] yes=7,no=8,missing=7
			7:leaf=0.0340862535
			8:leaf=-0
	2:[f637<-0.178968698] yes=5,no=6,missing=5
		5:leaf=-0
		6:[f631<0.179756641] yes=9,no=10,missing=9
			9:leaf=-0.0192433
			10:leaf=-0
booster[95]:
0:[f583<-0.162815005] yes=1,no=2,missing=1
	1:[f20<-4.64490891] yes=3,no=4,missing=3
		3:leaf=-0
		4:[f523<-2.01751614] yes=7,no=8,missing=7
			7:leaf=-0
			8:leaf=0.011522959
	2:[f141<0.83584547] yes=5,no=6,missing=5
		5:[f250<0.533484757] yes=9,no=10,missing=9
			9:leaf=-0.0322759487
			10:leaf=-0
		6:leaf=-0
booster[96]:
0:[f319<-0.2108531] yes=1,no=2,missing=1
	1:leaf=-0
	2:[f303<-0.32365787] yes=5,no=6,missing=5
		5:leaf=-0
		6:[f170<-0.525669277] yes=9,no=10,missing=9
			9:leaf=-0
			10:leaf=0.0387070179
booster[97]:
0:leaf=-0
booster[98]:
0:[f485<0.0796434507] yes=1,no=2,missing=1
	1:[f436<0.219291657] yes=3,no=4,missing=3
		3:[f105<1.21870661] yes=7,no=8,missing=7
			7:leaf=0.0268365871
			8:leaf=-0
		4:leaf=-0
	2:[f39<0.563900411] yes=5,no=6,missing=5
		5:[f415<-0.0694465786] yes=9,no=10,missing=9
			9:leaf=-0
			10:leaf=-0.0140336603
		6:leaf=-0
booster[99]:
0:[f521<-2.22932816] yes=1,no=2,missing=1
	1:leaf=-0
	2:[f294<0.183584318] yes=3,no=4,missing=3
		3:[f660<0.218127131] yes=5,no=6,missing=5
			5:leaf=-0.0263368022
			6:leaf=-0
		4:leaf=-0
